tree
version=v4
num_class=1
num_tree_per_iteration=1
label_index=0
max_feature_idx=17
objective=binary sigmoid:1
feature_names=fico orig_upb orig_rate ltv cltv dti loan_term num_units rate_spread_vintage fico_gap ltv_80 ltv_90 dti_43 int_fico_gap_x_ltv int_dti_x_ltv state_te channel_te purpose_te
monotone_constraints=-1 0 1 1 1 1 0 0 0 0 0 0 0 0 0 0 0 0
feature_infos=[424:850] [11000:1200000] [2.25:6.875] [4:120] [4:130] [1:65] [96:501] [1:4] [-2:2.75] [0:426] [0:40] [0:30] [0:22] [0:43026] [30:7800] [0.017045803458886965:0.10080666842622851] [0.030133936716490211:0.046056990453280995] [0.030607530633287999:0.038151493781596386]
tree_sizes=8271

Tree=0
num_leaves=76
num_cat=0
split_feature=13 2 5 5 2 13 2 0 13 15 2 13 5 13 15 15 8 15 5 15 15 13 13 5 15 4 15 5 5 15 13 2 2 5 5 5 13 6 8 15 2 5 15 5 13 13 13 13 0 4 5 15 0 13 8 5 15 15 5 15 17 13 13 8 13 4 4 2 0 6 8 8 5 13 4
split_gain=3.03208e+06 878397 525943 373538 250931 125206 122220 94084.7 89736.9 81241.2 76273.9 62679.1 60020.8 45766.3 40297 37036.6 32801.7 27905.6 21380.1 19218.2 17419.5 17004.1 14432.7 13257.5 13246.8 10616.6 9675.95 9607.99 9200.88 8289.61 7856.88 7647.54 7636.5 7532.27 7439.92 7140.59 6365.12 6349.12 6921.54 6275.56 5651.87 5294.32 5244.18 4355.77 4279.02 4200.62 4063.23 4031.48 3385.44 2719.46 2618.76 2533.28 2419.8 2050.78 1991.93 1979.72 1879.93 1755.96 1699.13 1617.96 1557.07 1129.78 1034.24 860.581 805.472 604.272 567.657 566.888 521.316 494.946 439.197 437.217 399.384 264.137 39.0967
threshold=7613.0000000000009 4.7515000000000009 35.500000000000007 33.500000000000007 4.5505000000000004 11443.000000000002 4.5805000000000016 705.50000000000011 5281.0000000000009 0.035820335092075405 5.315500000000001 4801.0000000000009 35.500000000000007 5040.5000000000009 0.035820335092075405 0.035820335092075405 0.74949999999999994 0.035820335092075405 40.500000000000007 0.035820335092075405 0.032401627497421183 12181.500000000002 14067.500000000002 25.500000000000004 0.038208991101328728 80.500000000000014 0.028231936369907708 42.500000000000007 24.500000000000004 0.043625772842887454 3522.5000000000005 4.8330000000000011 4.4345000000000008 24.500000000000004 41.500000000000007 42.500000000000007 13970.500000000002 237.50000000000003 -0.25849999999999967 0.044617203907751098 4.5395000000000012 30.500000000000004 0.044617203907751098 36.500000000000007 10720.500000000002 3128.5000000000005 3076.5000000000005 10374.500000000002 678.50000000000011 84.500000000000014 41.500000000000007 0.027201440968962463 756.50000000000011 9300.5000000000018 -0.65000000000000002 23.500000000000004 0.044617203907751098 0.027201440968962463 21.500000000000004 0.027201440968962463 0.033665312238437037 8947.5000000000018 6240.5000000000009 -0.25849999999999967 6347.0000000000009 76.500000000000014 89.500000000000014 3.7425000000000006 791.50000000000011 295.50000000000006 -0.24800000000000019 -0.25849999999999967 29.500000000000004 4370.5000000000009 57.500000000000007
decision_type=2 2 2 2 2 2 2 2 2 2 2 2 2 2 2 2 2 2 2 2 2 2 2 2 2 2 2 2 2 2 2 2 2 2 2 2 2 2 2 2 2 2 2 2 2 2 2 2 2 2 2 2 2 2 2 2 2 2 2 2 2 2 2 2 2 2 2 2 2 2 2 2 2 2 2
left_child=2 3 6 7 8 9 13 28 -4 40 12 29 36 24 23 35 26 31 39 41 22 50 34 47 45 42 -14 -19 48 -6 -8 -13 44 -16 57 71 -3 67 -39 53 -5 52 -20 -23 72 68 -40 61 -2 -36 -12 -37 -15 -11 -47 70 -48 -7 -54 -43 -57 -9 -60 -62 -53 -29 -24 -26 -1 -70 -56 -10 -25 -65 -71
right_child=1 10 4 5 11 20 30 14 15 18 21 17 16 19 33 -17 -18 27 25 -21 -22 43 66 32 37 -27 -28 65 -30 -31 -32 -33 -34 -35 49 51 -38 38 46 -41 -42 59 -44 -45 -46 54 56 -49 -50 -51 -52 64 58 -55 55 60 -58 -59 62 -61 63 -63 -64 73 -66 -67 -68 -69 69 74 -72 -73 -74 -75 -76
leaf_value=-3.2017046717159277 -2.6821018264584127 -2.4156070663472846 -2.8940082724099083 -2.6264573298953788 -2.7116541341339335 -2.6264573298953788 -2.9927211495518908 -3.1159670153854195 -2.8498225319019297 -2.6264573298953788 -2.2444737173789386 -2.6913357838803913 -2.3381068180028013 -3.068877579639198 -2.8772844773239856 -2.7116541341339335 -2.3430164274100771 -2.5109250078247891 -2.5044341006409407 -2.9927211495518908 -2.4156070663472846 -2.1837520945430473 -2.4545322007913559 -2.9556920611357929 -3.2105948530231347 -2.4156070663472846 -2.2444737173789386 -2.388886381860079 -2.6264573298953788 -2.5745257929555563 -2.8940082724099083 -2.5408446435252863 -2.7745595079593741 -2.7400582182254074 -2.5373393326925284 -2.8432257491060735 -2.3430164274100771 -2.9927211495518908 -3.2022396719433006 -2.5044341006409407 -2.5261806682175347 -3.068877579639198 -2.4530695925036214 -2.1037085165038629 -2.8492705892315966 -3.2473991201249457 -3.1033653760631412 -2.9556920611357929 -2.7400582182254074 -2.4407071878551654 -2.1858408697807579 -2.7976092976010287 -3.1987487712272609 -2.5659314649531946 -3.1751523478587362 -3.0600887724374068 -3.0004627832384596 -2.5573886742991334 -3.1548758406839705 -2.9927211495518908 -3.0992381848052561 -3.0299916414716099 -3.105061481156135 -3.1661377415459153 -2.7305049389774525 -2.3328215856313594 -2.4156070663472846 -3.1457556267201752 -3.2820434042702278 -3.2437886022966866 -3.2270577255014845 -2.8940082724099083 -2.924032933138708 -3.1355948685800592 -3.2287346080862376
leaf_weight=565.60657840967178 889.79879832267761 4822.235848903656 13017.853664517403 10488.709614396095 3467.0250722169876 1159.3198174238205 1584.1052200198174 855.86477726697922 812.26477313041687 1314.5832433104515 2481.0739793181419 1420.8747050762177 3087.7903102040291 894.2715168595314 1022.2270858883858 6568.7577447295189 3579.2823681235313 1711.3130450844765 3541.7919355630875 4130.5672777295113 12779.420086920261 2817.3589658737183 1490.5093686580658 936.59272110462189 737.33514815568924 4035.2529608607292 12434.508464694023 1507.4401479363441 5395.3529593348503 1162.3380408287048 6125.7373652458191 2210.9832122325897 1217.8303155303001 3249.6590386629105 1398.8426112532616 965.64627242088318 2391.6461414694786 955.25568294525146 721.93856745958328 1835.4074074029922 2765.2468105554581 723.08055692911148 2338.0764068365097 5939.9426899552345 808.15994477272034 683.92394059896469 1131.6678888201714 681.52553635835648 1022.5960424542427 1859.3349397182465 2250.1082872748375 914.2663499712944 911.03788363933563 1609.6010167002678 846.18411952257156 604.66545569896698 742.68481940031052 1542.4328827261925 1185.4957146048546 1232.9989006519318 625.00965529680252 709.81386780738831 991.39609986543655 1076.2889792323112 1154.1022339463234 1523.3550437092781 2750.3654607534409 629.84197527170181 970.23486816883087 562.48945939540863 796.65833503007889 1971.3929677009583 1207.5162365436554 729.03296315670013 579.61195170879364
leaf_count=14805 13418 61720 276474 171812 62300 17970 36511 20989 15752 21135 22159 23222 29471 20677 20367 102455 40483 22023 47538 84479 124203 18512 17560 21098 19427 40653 87560 15853 76561 16378 114232 29732 21855 53028 18711 18966 21773 19906 18905 23074 36408 17233 25858 29897 15246 18505 27479 14225 19551 21414 14871 16811 23796 22419 21717 14176 16559 21229 29963 27072 15125 16230 23481 27921 19731 14375 28926 15807 26900 15180 21243 41208 25148 18154 15416
internal_value=-2.61974 -2.45509 -2.87861 -2.56314 -2.75525 -2.49392 -3.03277 -2.759 -2.84672 -2.56532 -2.26807 -2.57659 -2.31779 -3.09143 -2.85366 -2.74331 -2.27043 -2.49468 -2.4816 -3.01147 -2.41561 -2.17116 -2.48272 -2.93303 -3.15359 -2.43958 -2.24447 -2.41454 -2.62646 -2.71165 -2.89401 -2.59954 -2.88023 -2.74006 -2.53347 -2.84621 -2.41561 -3.08895 -3.0537 -2.56929 -2.62646 -3.086 -2.49053 -2.12933 -2.92398 -3.19315 -3.10127 -3.03115 -2.73775 -2.48195 -2.24447 -2.79244 -3.11917 -2.61589 -3.16761 -3.15596 -3.06246 -2.59588 -3.14125 -3.01858 -3.13201 -3.07685 -3.11724 -3.14999 -2.75991 -2.3604 -2.41561 -3.18064 -3.24432 -3.25576 -3.20027 -2.89401 -2.95569 -3.16614 -3.23347
internal_weight=177855 108710 69144.7 68905.8 38407.6 50908.9 30737.1 17996.9 25404.3 27928.7 39803.9 13003.3 26315.5 23027.3 10689.2 12386.4 19101.6 8373.97 14674.7 10068.8 22980.2 13488.5 10200.8 6417.3 12958.4 9915.12 15522.3 4742.11 7307.75 4629.36 7709.84 3631.86 4170.1 4271.89 5959.93 5817.67 7213.88 4918.72 3551.55 4759.59 13254 5938.28 5879.87 8757.3 2952.27 8039.71 2596.29 2247.2 1912.39 3258.18 4731.18 3034.01 3982.2 2924.18 5361.76 4677.84 1874.35 2701.75 3087.93 1956.08 3035 1565.68 2176.89 2430.33 2068.37 3030.8 4240.87 1367.18 2677.94 2112.34 1642.84 2783.66 2144.11 1805.32 1142.1
internal_count=2663021 1283072 1379949 956626 675280 638910 704669 317716 491397 388897 326446 183883 241007 553926 208186 214923 157514 105205 180677 226701 250013 85439 125810 134791 327225 114049 117031 52251 109530 78678 150743 52954 83347 73395 79324 112468 83493 118083 82849 66628 208220 142222 73396 48409 61492 209142 62943 51444 32969 40125 37030 55508 97917 43554 136841 118336 44038 39199 77240 44305 75376 37219 53444 61200 36542 30228 46486 35234 72301 57496 42960 56960 46246 46075 30596
is_linear=0
shrinkage=1


end of trees

feature_importances:
int_fico_gap_x_ltv=18
dti=16
state_te=15
orig_rate=8
rate_spread_vintage=6
cltv=5
fico=4
loan_term=2
purpose_te=1

parameters:
[boosting: gbdt]
[objective: binary]
[metric: binary_logloss]
[tree_learner: serial]
[device_type: cpu]
[data_sample_strategy: bagging]
[data: ]
[valid: ]
[num_iterations: 4000]
[learning_rate: 0.05]
[num_leaves: 95]
[num_threads: 0]
[seed: 0]
[deterministic: 0]
[force_col_wise: 0]
[force_row_wise: 0]
[histogram_pool_size: -1]
[max_depth: -1]
[min_data_in_leaf: 15000]
[min_sum_hessian_in_leaf: 0.001]
[bagging_fraction: 0.8]
[pos_bagging_fraction: 1]
[neg_bagging_fraction: 1]
[bagging_freq: 0]
[bagging_seed: 3]
[bagging_by_query: 0]
[feature_fraction: 0.7]
[feature_fraction_bynode: 1]
[feature_fraction_seed: 2]
[extra_trees: 0]
[extra_seed: 6]
[early_stopping_round: 0]
[early_stopping_min_delta: 0]
[first_metric_only: 0]
[max_delta_step: 0]
[lambda_l1: 0.1]
[lambda_l2: 1]
[linear_lambda: 0]
[min_gain_to_split: 0]
[drop_rate: 0.1]
[max_drop: 50]
[skip_drop: 0.5]
[xgboost_dart_mode: 0]
[uniform_drop: 0]
[drop_seed: 4]
[top_rate: 0.2]
[other_rate: 0.1]
[min_data_per_group: 100]
[max_cat_threshold: 32]
[cat_l2: 10]
[cat_smooth: 10]
[max_cat_to_onehot: 4]
[top_k: 20]
[monotone_constraints: -1,0,1,1,1,1,0,0,0,0,0,0,0,0,0,0,0,0]
[monotone_constraints_method: basic]
[monotone_penalty: 0]
[feature_contri: ]
[forcedsplits_filename: ]
[refit_decay_rate: 0.9]
[cegb_tradeoff: 1]
[cegb_penalty_split: 0]
[cegb_penalty_feature_lazy: ]
[cegb_penalty_feature_coupled: ]
[path_smooth: 0]
[interaction_constraints: ]
[verbosity: -1]
[saved_feature_importance_type: 0]
[use_quantized_grad: 0]
[num_grad_quant_bins: 4]
[quant_train_renew_leaf: 0]
[stochastic_rounding: 1]
[linear_tree: 0]
[max_bin: 255]
[max_bin_by_feature: ]
[min_data_in_bin: 3]
[bin_construct_sample_cnt: 200000]
[data_random_seed: 1]
[is_enable_sparse: 1]
[enable_bundle: 1]
[use_missing: 1]
[zero_as_missing: 0]
[feature_pre_filter: 1]
[pre_partition: 0]
[two_round: 0]
[header: 0]
[label_column: ]
[weight_column: ]
[group_column: ]
[ignore_column: ]
[categorical_feature: ]
[forcedbins_filename: ]
[precise_float_parser: 0]
[parser_config_file: ]
[objective_seed: 5]
[num_class: 1]
[is_unbalance: 0]
[scale_pos_weight: 26.8329]
[sigmoid: 1]
[boost_from_average: 1]
[reg_sqrt: 0]
[alpha: 0.9]
[fair_c: 1]
[poisson_max_delta_step: 0.7]
[tweedie_variance_power: 1.5]
[lambdarank_truncation_level: 30]
[lambdarank_norm: 1]
[label_gain: ]
[lambdarank_position_bias_regularization: 0]
[eval_at: ]
[multi_error_top_k: 1]
[auc_mu_weights: ]
[num_machines: 1]
[local_listen_port: 12400]
[time_out: 120]
[machine_list_filename: ]
[machines: ]
[gpu_platform_id: -1]
[gpu_device_id: -1]
[gpu_use_dp: 0]
[num_gpu: 1]

end of parameters

pandas_categorical:[]
